digraph Tree {
node [shape=box, style="filled, rounded", color="black", fontname=helvetica] ;
edge [fontname=helvetica] ;
0 [label="petal length (cm) <= 2.45\ngini = 0.67\nsamples = 97\nvalue = [48, 50, 52]\nclass = virginica", fillcolor="#fcfbfe"] ;
1 [label="gini = 0.0\nsamples = 34\nvalue = [48, 0, 0]\nclass = setosa", fillcolor="#e58139"] ;
0 -> 1 [labeldistance=2.5, labelangle=45, headlabel="True"] ;
2 [label="petal width (cm) <= 1.7\ngini = 0.5\nsamples = 63\nvalue = [0, 50, 52]\nclass = virginica", fillcolor="#faf7fe"] ;
0 -> 2 [labeldistance=2.5, labelangle=-45, headlabel="False"] ;
3 [label="sepal width (cm) <= 2.65\ngini = 0.11\nsamples = 31\nvalue = [0, 50, 3]\nclass = versicolor", fillcolor="#45e789"] ;
2 -> 3 ;
4 [label="petal length (cm) <= 4.7\ngini = 0.36\nsamples = 11\nvalue = [0, 10, 3]\nclass = versicolor", fillcolor="#74eda7"] ;
3 -> 4 ;
5 [label="gini = 0.0\nsamples = 9\nvalue = [0, 10, 0]\nclass = versicolor", fillcolor="#39e581"] ;
4 -> 5 ;
6 [label="gini = 0.0\nsamples = 2\nvalue = [0, 0, 3]\nclass = virginica", fillcolor="#8139e5"] ;
4 -> 6 ;
7 [label="gini = 0.0\nsamples = 20\nvalue = [0, 40, 0]\nclass = versicolor", fillcolor="#39e581"] ;
3 -> 7 ;
8 [label="gini = 0.0\nsamples = 32\nvalue = [0, 0, 49]\nclass = virginica", fillcolor="#8139e5"] ;
2 -> 8 ;
}